digraph Tree {
node [shape=box, style="filled, rounded", color="black", fontname=helvetica] ;
edge [fontname=helvetica] ;
0 [label="Sex <= 0.5\ngini = 0.473\nsamples = 712\nvalue = [439, 273]\nclass = 0", fillcolor="#f5cfb4"] ;
1 [label="Pclass <= 1.5\ngini = 0.302\nsamples = 463\nvalue = [377, 86]\nclass = 0", fillcolor="#eb9e66"] ;
0 -> 1 [labeldistance=2.5, labelangle=45, headlabel="True"] ;
2 [label="Age <= 53.0\ngini = 0.473\nsamples = 99\nvalue = [61, 38]\nclass = 0", fillcolor="#f5cfb4"] ;
1 -> 2 ;
3 [label="Age <= 17.5\ngini = 0.494\nsamples = 81\nvalue = [45, 36]\nclass = 0", fillcolor="#fae6d7"] ;
2 -> 3 ;
4 [label="gini = 0.0\nsamples = 4\nvalue = [0, 4]\nclass = 1", fillcolor="#399de5"] ;
3 -> 4 ;
5 [label="Fare <= 37.0\ngini = 0.486\nsamples = 77\nvalue = [45, 32]\nclass = 0", fillcolor="#f7dbc6"] ;
3 -> 5 ;
6 [label="Fare <= 25.938\ngini = 0.492\nsamples = 32\nvalue = [14, 18]\nclass = 1", fillcolor="#d3e9f9"] ;
5 -> 6 ;
7 [label="gini = 0.0\nsamples = 4\nvalue = [4, 0]\nclass = 0", fillcolor="#e58139"] ;
6 -> 7 ;
8 [label="Fare <= 27.135\ngini = 0.459\nsamples = 28\nvalue = [10, 18]\nclass = 1", fillcolor="#a7d3f3"] ;
6 -> 8 ;
9 [label="Fare <= 26.469\ngini = 0.278\nsamples = 12\nvalue = [2, 10]\nclass = 1", fillcolor="#61b1ea"] ;
8 -> 9 ;
10 [label="gini = 0.0\nsamples = 4\nvalue = [0, 4]\nclass = 1", fillcolor="#399de5"] ;
9 -> 10 ;
11 [label="Age <= 46.5\ngini = 0.375\nsamples = 8\nvalue = [2, 6]\nclass = 1", fillcolor="#7bbeee"] ;
9 -> 11 ;
12 [label="Age <= 40.0\ngini = 0.444\nsamples = 6\nvalue = [2, 4]\nclass = 1", fillcolor="#9ccef2"] ;
11 -> 12 ;
13 [label="Age <= 31.85\ngini = 0.32\nsamples = 5\nvalue = [1, 4]\nclass = 1", fillcolor="#6ab6ec"] ;
12 -> 13 ;
14 [label="Age <= 28.85\ngini = 0.444\nsamples = 3\nvalue = [1, 2]\nclass = 1", fillcolor="#9ccef2"] ;
13 -> 14 ;
15 [label="gini = 0.0\nsamples = 1\nvalue = [0, 1]\nclass = 1", fillcolor="#399de5"] ;
14 -> 15 ;
16 [label="gini = 0.5\nsamples = 2\nvalue = [1, 1]\nclass = 0", fillcolor="#ffffff"] ;
14 -> 16 ;
17 [label="gini = 0.0\nsamples = 2\nvalue = [0, 2]\nclass = 1", fillcolor="#399de5"] ;
13 -> 17 ;
18 [label="gini = 0.0\nsamples = 1\nvalue = [1, 0]\nclass = 0", fillcolor="#e58139"] ;
12 -> 18 ;
19 [label="gini = 0.0\nsamples = 2\nvalue = [0, 2]\nclass = 1", fillcolor="#399de5"] ;
11 -> 19 ;
20 [label="Age <= 28.5\ngini = 0.5\nsamples = 16\nvalue = [8, 8]\nclass = 0", fillcolor="#ffffff"] ;
8 -> 20 ;
21 [label="gini = 0.0\nsamples = 3\nvalue = [0, 3]\nclass = 1", fillcolor="#399de5"] ;
20 -> 21 ;
22 [label="Fare <= 28.725\ngini = 0.473\nsamples = 13\nvalue = [8, 5]\nclass = 0", fillcolor="#f5d0b5"] ;
20 -> 22 ;
23 [label="gini = 0.0\nsamples = 3\nvalue = [3, 0]\nclass = 0", fillcolor="#e58139"] ;
22 -> 23 ;
24 [label="Age <= 29.35\ngini = 0.5\nsamples = 10\nvalue = [5, 5]\nclass = 0", fillcolor="#ffffff"] ;
22 -> 24 ;
25 [label="gini = 0.0\nsamples = 1\nvalue = [1, 0]\nclass = 0", fillcolor="#e58139"] ;
24 -> 25 ;
26 [label="Parch <= 0.5\ngini = 0.494\nsamples = 9\nvalue = [4, 5]\nclass = 1", fillcolor="#d7ebfa"] ;
24 -> 26 ;
27 [label="Fare <= 30.598\ngini = 0.469\nsamples = 8\nvalue = [3, 5]\nclass = 1", fillcolor="#b0d8f5"] ;
26 -> 27 ;
28 [label="gini = 0.0\nsamples = 3\nvalue = [0, 3]\nclass = 1", fillcolor="#399de5"] ;
27 -> 28 ;
29 [label="Age <= 42.5\ngini = 0.48\nsamples = 5\nvalue = [3, 2]\nclass = 0", fillcolor="#f6d5bd"] ;
27 -> 29 ;
30 [label="Fare <= 30.848\ngini = 0.5\nsamples = 4\nvalue = [2, 2]\nclass = 0", fillcolor="#ffffff"] ;
29 -> 30 ;
31 [label="gini = 0.0\nsamples = 1\nvalue = [1, 0]\nclass = 0", fillcolor="#e58139"] ;
30 -> 31 ;
32 [label="Fare <= 33.0\ngini = 0.444\nsamples = 3\nvalue = [1, 2]\nclass = 1", fillcolor="#9ccef2"] ;
30 -> 32 ;
33 [label="gini = 0.0\nsamples = 1\nvalue = [0, 1]\nclass = 1", fillcolor="#399de5"] ;
32 -> 33 ;
34 [label="Fare <= 35.25\ngini = 0.5\nsamples = 2\nvalue = [1, 1]\nclass = 0", fillcolor="#ffffff"] ;
32 -> 34 ;
35 [label="gini = 0.0\nsamples = 1\nvalue = [1, 0]\nclass = 0", fillcolor="#e58139"] ;
34 -> 35 ;
36 [label="gini = 0.0\nsamples = 1\nvalue = [0, 1]\nclass = 1", fillcolor="#399de5"] ;
34 -> 36 ;
37 [label="gini = 0.0\nsamples = 1\nvalue = [1, 0]\nclass = 0", fillcolor="#e58139"] ;
29 -> 37 ;
38 [label="gini = 0.0\nsamples = 1\nvalue = [1, 0]\nclass = 0", fillcolor="#e58139"] ;
26 -> 38 ;
39 [label="SibSp <= 0.5\ngini = 0.429\nsamples = 45\nvalue = [31, 14]\nclass = 0", fillcolor="#f1ba92"] ;
5 -> 39 ;
40 [label="Fare <= 379.925\ngini = 0.266\nsamples = 19\nvalue = [16, 3]\nclass = 0", fillcolor="#ea995e"] ;
39 -> 40 ;
41 [label="Age <= 28.35\ngini = 0.198\nsamples = 18\nvalue = [16, 2]\nclass = 0", fillcolor="#e89152"] ;
40 -> 41 ;
42 [label="Fare <= 77.008\ngini = 0.408\nsamples = 7\nvalue = [5, 2]\nclass = 0", fillcolor="#efb388"] ;
41 -> 42 ;
43 [label="gini = 0.0\nsamples = 2\nvalue = [0, 2]\nclass = 1", fillcolor="#399de5"] ;
42 -> 43 ;
44 [label="gini = 0.0\nsamples = 5\nvalue = [5, 0]\nclass = 0", fillcolor="#e58139"] ;
42 -> 44 ;
45 [label="gini = 0.0\nsamples = 11\nvalue = [11, 0]\nclass = 0", fillcolor="#e58139"] ;
41 -> 45 ;
46 [label="gini = 0.0\nsamples = 1\nvalue = [0, 1]\nclass = 1", fillcolor="#399de5"] ;
40 -> 46 ;
47 [label="Age <= 22.0\ngini = 0.488\nsamples = 26\nvalue = [15, 11]\nclass = 0", fillcolor="#f8ddca"] ;
39 -> 47 ;
48 [label="gini = 0.0\nsamples = 3\nvalue = [3, 0]\nclass = 0", fillcolor="#e58139"] ;
47 -> 48 ;
49 [label="Age <= 26.5\ngini = 0.499\nsamples = 23\nvalue = [12, 11]\nclass = 0", fillcolor="#fdf5ef"] ;
47 -> 49 ;
50 [label="gini = 0.0\nsamples = 2\nvalue = [0, 2]\nclass = 1", fillcolor="#399de5"] ;
49 -> 50 ;
51 [label="Fare <= 115.442\ngini = 0.49\nsamples = 21\nvalue = [12, 9]\nclass = 0", fillcolor="#f8e0ce"] ;
49 -> 51 ;
52 [label="Fare <= 52.827\ngini = 0.465\nsamples = 19\nvalue = [12, 7]\nclass = 0", fillcolor="#f4caac"] ;
51 -> 52 ;
53 [label="Fare <= 52.277\ngini = 0.48\nsamples = 5\nvalue = [2, 3]\nclass = 1", fillcolor="#bddef6"] ;
52 -> 53 ;
54 [label="Age <= 45.0\ngini = 0.444\nsamples = 3\nvalue = [2, 1]\nclass = 0", fillcolor="#f2c09c"] ;
53 -> 54 ;
55 [label="gini = 0.0\nsamples = 2\nvalue = [2, 0]\nclass = 0", fillcolor="#e58139"] ;
54 -> 55 ;
56 [label="gini = 0.0\nsamples = 1\nvalue = [0, 1]\nclass = 1", fillcolor="#399de5"] ;
54 -> 56 ;
57 [label="gini = 0.0\nsamples = 2\nvalue = [0, 2]\nclass = 1", fillcolor="#399de5"] ;
53 -> 57 ;
58 [label="Fare <= 86.29\ngini = 0.408\nsamples = 14\nvalue = [10, 4]\nclass = 0", fillcolor="#efb388"] ;
52 -> 58 ;
59 [label="Fare <= 77.79\ngini = 0.32\nsamples = 10\nvalue = [8, 2]\nclass = 0", fillcolor="#eca06a"] ;
58 -> 59 ;
60 [label="Fare <= 71.665\ngini = 0.444\nsamples = 6\nvalue = [4, 2]\nclass = 0", fillcolor="#f2c09c"] ;
59 -> 60 ;
61 [label="Age <= 34.0\ngini = 0.32\nsamples = 5\nvalue = [4, 1]\nclass = 0", fillcolor="#eca06a"] ;
60 -> 61 ;
62 [label="Fare <= 61.8\ngini = 0.5\nsamples = 2\nvalue = [1, 1]\nclass = 0", fillcolor="#ffffff"] ;
61 -> 62 ;
63 [label="gini = 0.0\nsamples = 1\nvalue = [0, 1]\nclass = 1", fillcolor="#399de5"] ;
62 -> 63 ;
64 [label="gini = 0.0\nsamples = 1\nvalue = [1, 0]\nclass = 0", fillcolor="#e58139"] ;
62 -> 64 ;
65 [label="gini = 0.0\nsamples = 3\nvalue = [3, 0]\nclass = 0", fillcolor="#e58139"] ;
61 -> 65 ;
66 [label="gini = 0.0\nsamples = 1\nvalue = [0, 1]\nclass = 1", fillcolor="#399de5"] ;
60 -> 66 ;
67 [label="gini = 0.0\nsamples = 4\nvalue = [4, 0]\nclass = 0", fillcolor="#e58139"] ;
59 -> 67 ;
68 [label="Parch <= 0.5\ngini = 0.5\nsamples = 4\nvalue = [2, 2]\nclass = 0", fillcolor="#ffffff"] ;
58 -> 68 ;
69 [label="Embarked <= 1.5\ngini = 0.444\nsamples = 3\nvalue = [1, 2]\nclass = 1", fillcolor="#9ccef2"] ;
68 -> 69 ;
70 [label="gini = 0.0\nsamples = 2\nvalue = [0, 2]\nclass = 1", fillcolor="#399de5"] ;
69 -> 70 ;
71 [label="gini = 0.0\nsamples = 1\nvalue = [1, 0]\nclass = 0", fillcolor="#e58139"] ;
69 -> 71 ;
72 [label="gini = 0.0\nsamples = 1\nvalue = [1, 0]\nclass = 0", fillcolor="#e58139"] ;
68 -> 72 ;
73 [label="gini = 0.0\nsamples = 2\nvalue = [0, 2]\nclass = 1", fillcolor="#399de5"] ;
51 -> 73 ;
74 [label="Age <= 75.5\ngini = 0.198\nsamples = 18\nvalue = [16, 2]\nclass = 0", fillcolor="#e89152"] ;
2 -> 74 ;
75 [label="Fare <= 78.244\ngini = 0.111\nsamples = 17\nvalue = [16, 1]\nclass = 0", fillcolor="#e78945"] ;
74 -> 75 ;
76 [label="gini = 0.0\nsamples = 14\nvalue = [14, 0]\nclass = 0", fillcolor="#e58139"] ;
75 -> 76 ;
77 [label="Parch <= 1.5\ngini = 0.444\nsamples = 3\nvalue = [2, 1]\nclass = 0", fillcolor="#f2c09c"] ;
75 -> 77 ;
78 [label="gini = 0.0\nsamples = 1\nvalue = [0, 1]\nclass = 1", fillcolor="#399de5"] ;
77 -> 78 ;
79 [label="gini = 0.0\nsamples = 2\nvalue = [2, 0]\nclass = 0", fillcolor="#e58139"] ;
77 -> 79 ;
80 [label="gini = 0.0\nsamples = 1\nvalue = [0, 1]\nclass = 1", fillcolor="#399de5"] ;
74 -> 80 ;
81 [label="Age <= 9.5\ngini = 0.229\nsamples = 364\nvalue = [316, 48]\nclass = 0", fillcolor="#e99457"] ;
1 -> 81 ;
82 [label="SibSp <= 3.0\ngini = 0.499\nsamples = 21\nvalue = [10, 11]\nclass = 1", fillcolor="#edf6fd"] ;
81 -> 82 ;
83 [label="gini = 0.0\nsamples = 11\nvalue = [0, 11]\nclass = 1", fillcolor="#399de5"] ;
82 -> 83 ;
84 [label="gini = 0.0\nsamples = 10\nvalue = [10, 0]\nclass = 0", fillcolor="#e58139"] ;
82 -> 84 ;
85 [label="Fare <= 51.698\ngini = 0.192\nsamples = 343\nvalue = [306, 37]\nclass = 0", fillcolor="#e89051"] ;
81 -> 85 ;
86 [label="Age <= 19.5\ngini = 0.176\nsamples = 329\nvalue = [297, 32]\nclass = 0", fillcolor="#e88f4e"] ;
85 -> 86 ;
87 [label="Age <= 13.0\ngini = 0.049\nsamples = 40\nvalue = [39, 1]\nclass = 0", fillcolor="#e6843e"] ;
86 -> 87 ;
88 [label="Fare <= 15.015\ngini = 0.375\nsamples = 4\nvalue = [3, 1]\nclass = 0", fillcolor="#eeab7b"] ;
87 -> 88 ;
89 [label="gini = 0.0\nsamples = 1\nvalue = [0, 1]\nclass = 1", fillcolor="#399de5"] ;
88 -> 89 ;
90 [label="gini = 0.0\nsamples = 3\nvalue = [3, 0]\nclass = 0", fillcolor="#e58139"] ;
88 -> 90 ;
91 [label="gini = 0.0\nsamples = 36\nvalue = [36, 0]\nclass = 0", fillcolor="#e58139"] ;
87 -> 91 ;
92 [label="Age <= 32.25\ngini = 0.192\nsamples = 289\nvalue = [258, 31]\nclass = 0", fillcolor="#e89051"] ;
86 -> 92 ;
93 [label="Age <= 30.75\ngini = 0.218\nsamples = 201\nvalue = [176, 25]\nclass = 0", fillcolor="#e99355"] ;
92 -> 93 ;
94 [label="Parch <= 0.5\ngini = 0.191\nsamples = 187\nvalue = [167, 20]\nclass = 0", fillcolor="#e89051"] ;
93 -> 94 ;
95 [label="Fare <= 7.798\ngini = 0.179\nsamples = 181\nvalue = [163, 18]\nclass = 0", fillcolor="#e88f4f"] ;
94 -> 95 ;
96 [label="Age <= 29.35\ngini = 0.26\nsamples = 65\nvalue = [55, 10]\nclass = 0", fillcolor="#ea985d"] ;
95 -> 96 ;
97 [label="Fare <= 2.006\ngini = 0.4\nsamples = 29\nvalue = [21, 8]\nclass = 0", fillcolor="#efb184"] ;
96 -> 97 ;
98 [label="gini = 0.0\nsamples = 1\nvalue = [0, 1]\nclass = 1", fillcolor="#399de5"] ;
97 -> 98 ;
99 [label="Fare <= 7.24\ngini = 0.375\nsamples = 28\nvalue = [21, 7]\nclass = 0", fillcolor="#eeab7b"] ;
97 -> 99 ;
100 [label="Fare <= 7.133\ngini = 0.463\nsamples = 11\nvalue = [7, 4]\nclass = 0", fillcolor="#f4c9aa"] ;
99 -> 100 ;
101 [label="Age <= 26.0\ngini = 0.32\nsamples = 5\nvalue = [4, 1]\nclass = 0", fillcolor="#eca06a"] ;
100 -> 101 ;
102 [label="gini = 0.0\nsamples = 4\nvalue = [4, 0]\nclass = 0", fillcolor="#e58139"] ;
101 -> 102 ;
103 [label="gini = 0.0\nsamples = 1\nvalue = [0, 1]\nclass = 1", fillcolor="#399de5"] ;
101 -> 103 ;
104 [label="Age <= 22.75\ngini = 0.5\nsamples = 6\nvalue = [3, 3]\nclass = 0", fillcolor="#ffffff"] ;
100 -> 104 ;
105 [label="gini = 0.0\nsamples = 2\nvalue = [0, 2]\nclass = 1", fillcolor="#399de5"] ;
104 -> 105 ;
106 [label="Fare <= 7.183\ngini = 0.375\nsamples = 4\nvalue = [3, 1]\nclass = 0", fillcolor="#eeab7b"] ;
104 -> 106 ;
107 [label="gini = 0.0\nsamples = 1\nvalue = [0, 1]\nclass = 1", fillcolor="#399de5"] ;
106 -> 107 ;
108 [label="gini = 0.0\nsamples = 3\nvalue = [3, 0]\nclass = 0", fillcolor="#e58139"] ;
106 -> 108 ;
109 [label="Fare <= 7.746\ngini = 0.291\nsamples = 17\nvalue = [14, 3]\nclass = 0", fillcolor="#eb9c63"] ;
99 -> 109 ;
110 [label="gini = 0.0\nsamples = 7\nvalue = [7, 0]\nclass = 0", fillcolor="#e58139"] ;
109 -> 110 ;
111 [label="Embarked <= 1.0\ngini = 0.42\nsamples = 10\nvalue = [7, 3]\nclass = 0", fillcolor="#f0b78e"] ;
109 -> 111 ;
112 [label="Age <= 25.5\ngini = 0.346\nsamples = 9\nvalue = [7, 2]\nclass = 0", fillcolor="#eca572"] ;
111 -> 112 ;
113 [label="SibSp <= 0.5\ngini = 0.444\nsamples = 6\nvalue = [4, 2]\nclass = 0", fillcolor="#f2c09c"] ;
112 -> 113 ;
114 [label="Age <= 21.5\ngini = 0.375\nsamples = 4\nvalue = [3, 1]\nclass = 0", fillcolor="#eeab7b"] ;
113 -> 114 ;
115 [label="Fare <= 7.785\ngini = 0.5\nsamples = 2\nvalue = [1, 1]\nclass = 0", fillcolor="#ffffff"] ;
114 -> 115 ;
116 [label="gini = 0.0\nsamples = 1\nvalue = [1, 0]\nclass = 0", fillcolor="#e58139"] ;
115 -> 116 ;
117 [label="gini = 0.0\nsamples = 1\nvalue = [0, 1]\nclass = 1", fillcolor="#399de5"] ;
115 -> 117 ;
118 [label="gini = 0.0\nsamples = 2\nvalue = [2, 0]\nclass = 0", fillcolor="#e58139"] ;
114 -> 118 ;
119 [label="gini = 0.5\nsamples = 2\nvalue = [1, 1]\nclass = 0", fillcolor="#ffffff"] ;
113 -> 119 ;
120 [label="gini = 0.0\nsamples = 3\nvalue = [3, 0]\nclass = 0", fillcolor="#e58139"] ;
112 -> 120 ;
121 [label="gini = 0.0\nsamples = 1\nvalue = [0, 1]\nclass = 1", fillcolor="#399de5"] ;
111 -> 121 ;
122 [label="Fare <= 7.763\ngini = 0.105\nsamples = 36\nvalue = [34, 2]\nclass = 0", fillcolor="#e78845"] ;
96 -> 122 ;
123 [label="Fare <= 7.744\ngini = 0.057\nsamples = 34\nvalue = [33, 1]\nclass = 0", fillcolor="#e6853f"] ;
122 -> 123 ;
124 [label="gini = 0.0\nsamples = 24\nvalue = [24, 0]\nclass = 0", fillcolor="#e58139"] ;
123 -> 124 ;
125 [label="SibSp <= 0.5\ngini = 0.18\nsamples = 10\nvalue = [9, 1]\nclass = 0", fillcolor="#e88f4f"] ;
123 -> 125 ;
126 [label="gini = 0.198\nsamples = 9\nvalue = [8, 1]\nclass = 0", fillcolor="#e89152"] ;
125 -> 126 ;
127 [label="gini = 0.0\nsamples = 1\nvalue = [1, 0]\nclass = 0", fillcolor="#e58139"] ;
125 -> 127 ;
128 [label="gini = 0.5\nsamples = 2\nvalue = [1, 1]\nclass = 0", fillcolor="#ffffff"] ;
122 -> 128 ;
129 [label="Fare <= 8.081\ngini = 0.128\nsamples = 116\nvalue = [108, 8]\nclass = 0", fillcolor="#e78a48"] ;
95 -> 129 ;
130 [label="SibSp <= 0.5\ngini = 0.036\nsamples = 54\nvalue = [53, 1]\nclass = 0", fillcolor="#e5833d"] ;
129 -> 130 ;
131 [label="gini = 0.0\nsamples = 51\nvalue = [51, 0]\nclass = 0", fillcolor="#e58139"] ;
130 -> 131 ;
132 [label="Age <= 23.0\ngini = 0.444\nsamples = 3\nvalue = [2, 1]\nclass = 0", fillcolor="#f2c09c"] ;
130 -> 132 ;
133 [label="gini = 0.0\nsamples = 1\nvalue = [0, 1]\nclass = 1", fillcolor="#399de5"] ;
132 -> 133 ;
134 [label="gini = 0.0\nsamples = 2\nvalue = [2, 0]\nclass = 0", fillcolor="#e58139"] ;
132 -> 134 ;
135 [label="Fare <= 8.273\ngini = 0.2\nsamples = 62\nvalue = [55, 7]\nclass = 0", fillcolor="#e89152"] ;
129 -> 135 ;
136 [label="gini = 0.0\nsamples = 1\nvalue = [0, 1]\nclass = 1", fillcolor="#399de5"] ;
135 -> 136 ;
137 [label="Age <= 25.5\ngini = 0.177\nsamples = 61\nvalue = [55, 6]\nclass = 0", fillcolor="#e88f4f"] ;
135 -> 137 ;
138 [label="gini = 0.0\nsamples = 22\nvalue = [22, 0]\nclass = 0", fillcolor="#e58139"] ;
137 -> 138 ;
139 [label="Fare <= 23.625\ngini = 0.26\nsamples = 39\nvalue = [33, 6]\nclass = 0", fillcolor="#ea985d"] ;
137 -> 139 ;
140 [label="Fare <= 22.465\ngini = 0.291\nsamples = 34\nvalue = [28, 6]\nclass = 0", fillcolor="#eb9c63"] ;
139 -> 140 ;
141 [label="SibSp <= 0.5\ngini = 0.257\nsamples = 33\nvalue = [28, 5]\nclass = 0", fillcolor="#ea985c"] ;
140 -> 141 ;
142 [label="Fare <= 17.444\ngini = 0.33\nsamples = 24\nvalue = [19, 5]\nclass = 0", fillcolor="#eca26d"] ;
141 -> 142 ;
143 [label="Fare <= 14.16\ngini = 0.287\nsamples = 23\nvalue = [19, 4]\nclass = 0", fillcolor="#ea9c63"] ;
142 -> 143 ;
144 [label="Fare <= 13.681\ngini = 0.346\nsamples = 18\nvalue = [14, 4]\nclass = 0", fillcolor="#eca572"] ;
143 -> 144 ;
145 [label="Fare <= 10.0\ngini = 0.291\nsamples = 17\nvalue = [14, 3]\nclass = 0", fillcolor="#eb9c63"] ;
144 -> 145 ;
146 [label="Age <= 27.5\ngini = 0.408\nsamples = 7\nvalue = [5, 2]\nclass = 0", fillcolor="#efb388"] ;
145 -> 146 ;
147 [label="gini = 0.0\nsamples = 1\nvalue = [0, 1]\nclass = 1", fillcolor="#399de5"] ;
146 -> 147 ;
148 [label="Fare <= 9.106\ngini = 0.278\nsamples = 6\nvalue = [5, 1]\nclass = 0", fillcolor="#ea9a61"] ;
146 -> 148 ;
149 [label="gini = 0.0\nsamples = 3\nvalue = [3, 0]\nclass = 0", fillcolor="#e58139"] ;
148 -> 149 ;
150 [label="Age <= 28.5\ngini = 0.444\nsamples = 3\nvalue = [2, 1]\nclass = 0", fillcolor="#f2c09c"] ;
148 -> 150 ;
151 [label="gini = 0.0\nsamples = 2\nvalue = [2, 0]\nclass = 0", fillcolor="#e58139"] ;
150 -> 151 ;
152 [label="gini = 0.0\nsamples = 1\nvalue = [0, 1]\nclass = 1", fillcolor="#399de5"] ;
150 -> 152 ;
153 [label="Age <= 29.35\ngini = 0.18\nsamples = 10\nvalue = [9, 1]\nclass = 0", fillcolor="#e88f4f"] ;
145 -> 153 ;
154 [label="gini = 0.0\nsamples = 7\nvalue = [7, 0]\nclass = 0", fillcolor="#e58139"] ;
153 -> 154 ;
155 [label="Age <= 29.85\ngini = 0.444\nsamples = 3\nvalue = [2, 1]\nclass = 0", fillcolor="#f2c09c"] ;
153 -> 155 ;
156 [label="gini = 0.0\nsamples = 1\nvalue = [0, 1]\nclass = 1", fillcolor="#399de5"] ;
155 -> 156 ;
157 [label="gini = 0.0\nsamples = 2\nvalue = [2, 0]\nclass = 0", fillcolor="#e58139"] ;
155 -> 157 ;
158 [label="gini = 0.0\nsamples = 1\nvalue = [0, 1]\nclass = 1", fillcolor="#399de5"] ;
144 -> 158 ;
159 [label="gini = 0.0\nsamples = 5\nvalue = [5, 0]\nclass = 0", fillcolor="#e58139"] ;
143 -> 159 ;
160 [label="gini = 0.0\nsamples = 1\nvalue = [0, 1]\nclass = 1", fillcolor="#399de5"] ;
142 -> 160 ;
161 [label="gini = 0.0\nsamples = 9\nvalue = [9, 0]\nclass = 0", fillcolor="#e58139"] ;
141 -> 161 ;
162 [label="gini = 0.0\nsamples = 1\nvalue = [0, 1]\nclass = 1", fillcolor="#399de5"] ;
140 -> 162 ;
163 [label="gini = 0.0\nsamples = 5\nvalue = [5, 0]\nclass = 0", fillcolor="#e58139"] ;
139 -> 163 ;
164 [label="Embarked <= 0.5\ngini = 0.444\nsamples = 6\nvalue = [4, 2]\nclass = 0", fillcolor="#f2c09c"] ;
94 -> 164 ;
165 [label="gini = 0.0\nsamples = 4\nvalue = [4, 0]\nclass = 0", fillcolor="#e58139"] ;
164 -> 165 ;
166 [label="gini = 0.0\nsamples = 2\nvalue = [0, 2]\nclass = 1", fillcolor="#399de5"] ;
164 -> 166 ;
167 [label="Fare <= 7.85\ngini = 0.459\nsamples = 14\nvalue = [9, 5]\nclass = 0", fillcolor="#f3c7a7"] ;
93 -> 167 ;
168 [label="gini = 0.0\nsamples = 3\nvalue = [3, 0]\nclass = 0", fillcolor="#e58139"] ;
167 -> 168 ;
169 [label="Fare <= 9.275\ngini = 0.496\nsamples = 11\nvalue = [6, 5]\nclass = 0", fillcolor="#fbeade"] ;
167 -> 169 ;
170 [label="Age <= 31.5\ngini = 0.375\nsamples = 4\nvalue = [1, 3]\nclass = 1", fillcolor="#7bbeee"] ;
169 -> 170 ;
171 [label="gini = 0.0\nsamples = 1\nvalue = [0, 1]\nclass = 1", fillcolor="#399de5"] ;
170 -> 171 ;
172 [label="Fare <= 7.988\ngini = 0.444\nsamples = 3\nvalue = [1, 2]\nclass = 1", fillcolor="#9ccef2"] ;
170 -> 172 ;
173 [label="gini = 0.5\nsamples = 2\nvalue = [1, 1]\nclass = 0", fillcolor="#ffffff"] ;
172 -> 173 ;
174 [label="gini = 0.0\nsamples = 1\nvalue = [0, 1]\nclass = 1", fillcolor="#399de5"] ;
172 -> 174 ;
175 [label="Parch <= 0.5\ngini = 0.408\nsamples = 7\nvalue = [5, 2]\nclass = 0", fillcolor="#efb388"] ;
169 -> 175 ;
176 [label="Fare <= 11.75\ngini = 0.48\nsamples = 5\nvalue = [3, 2]\nclass = 0", fillcolor="#f6d5bd"] ;
175 -> 176 ;
177 [label="gini = 0.0\nsamples = 2\nvalue = [2, 0]\nclass = 0", fillcolor="#e58139"] ;
176 -> 177 ;
178 [label="Pclass <= 2.5\ngini = 0.444\nsamples = 3\nvalue = [1, 2]\nclass = 1", fillcolor="#9ccef2"] ;
176 -> 178 ;
179 [label="gini = 0.0\nsamples = 2\nvalue = [0, 2]\nclass = 1", fillcolor="#399de5"] ;
178 -> 179 ;
180 [label="gini = 0.0\nsamples = 1\nvalue = [1, 0]\nclass = 0", fillcolor="#e58139"] ;
178 -> 180 ;
181 [label="gini = 0.0\nsamples = 2\nvalue = [2, 0]\nclass = 0", fillcolor="#e58139"] ;
175 -> 181 ;
182 [label="Fare <= 7.91\ngini = 0.127\nsamples = 88\nvalue = [82, 6]\nclass = 0", fillcolor="#e78a47"] ;
92 -> 182 ;
183 [label="gini = 0.0\nsamples = 27\nvalue = [27, 0]\nclass = 0", fillcolor="#e58139"] ;
182 -> 183 ;
184 [label="Fare <= 7.988\ngini = 0.177\nsamples = 61\nvalue = [55, 6]\nclass = 0", fillcolor="#e88f4f"] ;
182 -> 184 ;
185 [label="Age <= 38.0\ngini = 0.444\nsamples = 3\nvalue = [1, 2]\nclass = 1", fillcolor="#9ccef2"] ;
184 -> 185 ;
186 [label="gini = 0.0\nsamples = 1\nvalue = [1, 0]\nclass = 0", fillcolor="#e58139"] ;
185 -> 186 ;
187 [label="gini = 0.0\nsamples = 2\nvalue = [0, 2]\nclass = 1", fillcolor="#399de5"] ;
185 -> 187 ;
188 [label="Fare <= 13.25\ngini = 0.128\nsamples = 58\nvalue = [54, 4]\nclass = 0", fillcolor="#e78a48"] ;
184 -> 188 ;
189 [label="Fare <= 12.938\ngini = 0.219\nsamples = 32\nvalue = [28, 4]\nclass = 0", fillcolor="#e99355"] ;
188 -> 189 ;
190 [label="Age <= 44.5\ngini = 0.153\nsamples = 24\nvalue = [22, 2]\nclass = 0", fillcolor="#e78c4b"] ;
189 -> 190 ;
191 [label="gini = 0.0\nsamples = 15\nvalue = [15, 0]\nclass = 0", fillcolor="#e58139"] ;
190 -> 191 ;
192 [label="Age <= 47.5\ngini = 0.346\nsamples = 9\nvalue = [7, 2]\nclass = 0", fillcolor="#eca572"] ;
190 -> 192 ;
193 [label="gini = 0.0\nsamples = 1\nvalue = [0, 1]\nclass = 1", fillcolor="#399de5"] ;
192 -> 193 ;
194 [label="Age <= 59.5\ngini = 0.219\nsamples = 8\nvalue = [7, 1]\nclass = 0", fillcolor="#e99355"] ;
192 -> 194 ;
195 [label="gini = 0.0\nsamples = 5\nvalue = [5, 0]\nclass = 0", fillcolor="#e58139"] ;
194 -> 195 ;
196 [label="Age <= 64.0\ngini = 0.444\nsamples = 3\nvalue = [2, 1]\nclass = 0", fillcolor="#f2c09c"] ;
194 -> 196 ;
197 [label="gini = 0.0\nsamples = 1\nvalue = [0, 1]\nclass = 1", fillcolor="#399de5"] ;
196 -> 197 ;
198 [label="gini = 0.0\nsamples = 2\nvalue = [2, 0]\nclass = 0", fillcolor="#e58139"] ;
196 -> 198 ;
199 [label="Age <= 46.0\ngini = 0.375\nsamples = 8\nvalue = [6, 2]\nclass = 0", fillcolor="#eeab7b"] ;
189 -> 199 ;
200 [label="Age <= 40.5\ngini = 0.444\nsamples = 6\nvalue = [4, 2]\nclass = 0", fillcolor="#f2c09c"] ;
199 -> 200 ;
201 [label="Age <= 36.5\ngini = 0.375\nsamples = 4\nvalue = [3, 1]\nclass = 0", fillcolor="#eeab7b"] ;
200 -> 201 ;
202 [label="gini = 0.444\nsamples = 3\nvalue = [2, 1]\nclass = 0", fillcolor="#f2c09c"] ;
201 -> 202 ;
203 [label="gini = 0.0\nsamples = 1\nvalue = [1, 0]\nclass = 0", fillcolor="#e58139"] ;
201 -> 203 ;
204 [label="gini = 0.5\nsamples = 2\nvalue = [1, 1]\nclass = 0", fillcolor="#ffffff"] ;
200 -> 204 ;
205 [label="gini = 0.0\nsamples = 2\nvalue = [2, 0]\nclass = 0", fillcolor="#e58139"] ;
199 -> 205 ;
206 [label="gini = 0.0\nsamples = 26\nvalue = [26, 0]\nclass = 0", fillcolor="#e58139"] ;
188 -> 206 ;
207 [label="Fare <= 63.023\ngini = 0.459\nsamples = 14\nvalue = [9, 5]\nclass = 0", fillcolor="#f3c7a7"] ;
85 -> 207 ;
208 [label="Age <= 28.85\ngini = 0.278\nsamples = 6\nvalue = [1, 5]\nclass = 1", fillcolor="#61b1ea"] ;
207 -> 208 ;
209 [label="Age <= 27.0\ngini = 0.5\nsamples = 2\nvalue = [1, 1]\nclass = 0", fillcolor="#ffffff"] ;
208 -> 209 ;
210 [label="gini = 0.0\nsamples = 1\nvalue = [0, 1]\nclass = 1", fillcolor="#399de5"] ;
209 -> 210 ;
211 [label="gini = 0.0\nsamples = 1\nvalue = [1, 0]\nclass = 0", fillcolor="#e58139"] ;
209 -> 211 ;
212 [label="gini = 0.0\nsamples = 4\nvalue = [0, 4]\nclass = 1", fillcolor="#399de5"] ;
208 -> 212 ;
213 [label="gini = 0.0\nsamples = 8\nvalue = [8, 0]\nclass = 0", fillcolor="#e58139"] ;
207 -> 213 ;
214 [label="Pclass <= 2.5\ngini = 0.374\nsamples = 249\nvalue = [62, 187]\nclass = 1", fillcolor="#7bbdee"] ;
0 -> 214 [labeldistance=2.5, labelangle=-45, headlabel="False"] ;
215 [label="Age <= 2.5\ngini = 0.086\nsamples = 134\nvalue = [6, 128]\nclass = 1", fillcolor="#42a2e6"] ;
214 -> 215 ;
216 [label="Parch <= 1.5\ngini = 0.5\nsamples = 2\nvalue = [1, 1]\nclass = 0", fillcolor="#ffffff"] ;
215 -> 216 ;
217 [label="gini = 0.0\nsamples = 1\nvalue = [0, 1]\nclass = 1", fillcolor="#399de5"] ;
216 -> 217 ;
218 [label="gini = 0.0\nsamples = 1\nvalue = [1, 0]\nclass = 0", fillcolor="#e58139"] ;
216 -> 218 ;
219 [label="Age <= 43.5\ngini = 0.073\nsamples = 132\nvalue = [5, 127]\nclass = 1", fillcolor="#41a1e6"] ;
215 -> 219 ;
220 [label="Fare <= 149.035\ngini = 0.037\nsamples = 105\nvalue = [2, 103]\nclass = 1", fillcolor="#3d9fe6"] ;
219 -> 220 ;
221 [label="Fare <= 22.0\ngini = 0.022\nsamples = 92\nvalue = [1, 91]\nclass = 1", fillcolor="#3b9ee5"] ;
220 -> 221 ;
222 [label="Fare <= 20.25\ngini = 0.077\nsamples = 25\nvalue = [1, 24]\nclass = 1", fillcolor="#41a1e6"] ;
221 -> 222 ;
223 [label="gini = 0.0\nsamples = 22\nvalue = [0, 22]\nclass = 1", fillcolor="#399de5"] ;
222 -> 223 ;
224 [label="Age <= 28.5\ngini = 0.444\nsamples = 3\nvalue = [1, 2]\nclass = 1", fillcolor="#9ccef2"] ;
222 -> 224 ;
225 [label="gini = 0.0\nsamples = 1\nvalue = [1, 0]\nclass = 0", fillcolor="#e58139"] ;
224 -> 225 ;
226 [label="gini = 0.0\nsamples = 2\nvalue = [0, 2]\nclass = 1", fillcolor="#399de5"] ;
224 -> 226 ;
227 [label="gini = 0.0\nsamples = 67\nvalue = [0, 67]\nclass = 1", fillcolor="#399de5"] ;
221 -> 227 ;
228 [label="Fare <= 152.506\ngini = 0.142\nsamples = 13\nvalue = [1, 12]\nclass = 1", fillcolor="#49a5e7"] ;
220 -> 228 ;
229 [label="Age <= 23.5\ngini = 0.5\nsamples = 2\nvalue = [1, 1]\nclass = 0", fillcolor="#ffffff"] ;
228 -> 229 ;
230 [label="gini = 0.0\nsamples = 1\nvalue = [0, 1]\nclass = 1", fillcolor="#399de5"] ;
229 -> 230 ;
231 [label="gini = 0.0\nsamples = 1\nvalue = [1, 0]\nclass = 0", fillcolor="#e58139"] ;
229 -> 231 ;
232 [label="gini = 0.0\nsamples = 11\nvalue = [0, 11]\nclass = 1", fillcolor="#399de5"] ;
228 -> 232 ;
233 [label="Fare <= 34.156\ngini = 0.198\nsamples = 27\nvalue = [3, 24]\nclass = 1", fillcolor="#52a9e8"] ;
219 -> 233 ;
234 [label="Fare <= 28.217\ngini = 0.397\nsamples = 11\nvalue = [3, 8]\nclass = 1", fillcolor="#83c2ef"] ;
233 -> 234 ;
235 [label="Fare <= 13.25\ngini = 0.32\nsamples = 10\nvalue = [2, 8]\nclass = 1", fillcolor="#6ab6ec"] ;
234 -> 235 ;
236 [label="Age <= 53.5\ngini = 0.5\nsamples = 2\nvalue = [1, 1]\nclass = 0", fillcolor="#ffffff"] ;
235 -> 236 ;
237 [label="gini = 0.0\nsamples = 1\nvalue = [0, 1]\nclass = 1", fillcolor="#399de5"] ;
236 -> 237 ;
238 [label="gini = 0.0\nsamples = 1\nvalue = [1, 0]\nclass = 0", fillcolor="#e58139"] ;
236 -> 238 ;
239 [label="Age <= 44.5\ngini = 0.219\nsamples = 8\nvalue = [1, 7]\nclass = 1", fillcolor="#55abe9"] ;
235 -> 239 ;
240 [label="Embarked <= 0.5\ngini = 0.5\nsamples = 2\nvalue = [1, 1]\nclass = 0", fillcolor="#ffffff"] ;
239 -> 240 ;
241 [label="gini = 0.0\nsamples = 1\nvalue = [1, 0]\nclass = 0", fillcolor="#e58139"] ;
240 -> 241 ;
242 [label="gini = 0.0\nsamples = 1\nvalue = [0, 1]\nclass = 1", fillcolor="#399de5"] ;
240 -> 242 ;
243 [label="gini = 0.0\nsamples = 6\nvalue = [0, 6]\nclass = 1", fillcolor="#399de5"] ;
239 -> 243 ;
244 [label="gini = 0.0\nsamples = 1\nvalue = [1, 0]\nclass = 0", fillcolor="#e58139"] ;
234 -> 244 ;
245 [label="gini = 0.0\nsamples = 16\nvalue = [0, 16]\nclass = 1", fillcolor="#399de5"] ;
233 -> 245 ;
246 [label="Embarked <= 0.5\ngini = 0.5\nsamples = 115\nvalue = [56, 59]\nclass = 1", fillcolor="#f5fafe"] ;
214 -> 246 ;
247 [label="Fare <= 22.738\ngini = 0.457\nsamples = 68\nvalue = [44, 24]\nclass = 0", fillcolor="#f3c6a5"] ;
246 -> 247 ;
248 [label="Fare <= 11.375\ngini = 0.497\nsamples = 48\nvalue = [26, 22]\nclass = 0", fillcolor="#fbece1"] ;
247 -> 248 ;
249 [label="Age <= 27.5\ngini = 0.464\nsamples = 30\nvalue = [19, 11]\nclass = 0", fillcolor="#f4caac"] ;
248 -> 249 ;
250 [label="Fare <= 7.763\ngini = 0.499\nsamples = 19\nvalue = [10, 9]\nclass = 0", fillcolor="#fcf2eb"] ;
249 -> 250 ;
251 [label="gini = 0.0\nsamples = 3\nvalue = [0, 3]\nclass = 1", fillcolor="#399de5"] ;
250 -> 251 ;
252 [label="Age <= 25.5\ngini = 0.469\nsamples = 16\nvalue = [10, 6]\nclass = 0", fillcolor="#f5cdb0"] ;
250 -> 252 ;
253 [label="Age <= 19.5\ngini = 0.355\nsamples = 13\nvalue = [10, 3]\nclass = 0", fillcolor="#eda774"] ;
252 -> 253 ;
254 [label="Age <= 16.0\ngini = 0.5\nsamples = 6\nvalue = [3, 3]\nclass = 0", fillcolor="#ffffff"] ;
253 -> 254 ;
255 [label="gini = 0.0\nsamples = 2\nvalue = [2, 0]\nclass = 0", fillcolor="#e58139"] ;
254 -> 255 ;
256 [label="Fare <= 7.815\ngini = 0.375\nsamples = 4\nvalue = [1, 3]\nclass = 1", fillcolor="#7bbeee"] ;
254 -> 256 ;
257 [label="gini = 0.0\nsamples = 1\nvalue = [1, 0]\nclass = 0", fillcolor="#e58139"] ;
256 -> 257 ;
258 [label="gini = 0.0\nsamples = 3\nvalue = [0, 3]\nclass = 1", fillcolor="#399de5"] ;
256 -> 258 ;
259 [label="gini = 0.0\nsamples = 7\nvalue = [7, 0]\nclass = 0", fillcolor="#e58139"] ;
253 -> 259 ;
260 [label="gini = 0.0\nsamples = 3\nvalue = [0, 3]\nclass = 1", fillcolor="#399de5"] ;
252 -> 260 ;
261 [label="Age <= 54.0\ngini = 0.298\nsamples = 11\nvalue = [9, 2]\nclass = 0", fillcolor="#eb9d65"] ;
249 -> 261 ;
262 [label="Fare <= 8.673\ngini = 0.18\nsamples = 10\nvalue = [9, 1]\nclass = 0", fillcolor="#e88f4f"] ;
261 -> 262 ;
263 [label="gini = 0.0\nsamples = 7\nvalue = [7, 0]\nclass = 0", fillcolor="#e58139"] ;
262 -> 263 ;
264 [label="Fare <= 9.135\ngini = 0.444\nsamples = 3\nvalue = [2, 1]\nclass = 0", fillcolor="#f2c09c"] ;
262 -> 264 ;
265 [label="gini = 0.0\nsamples = 1\nvalue = [0, 1]\nclass = 1", fillcolor="#399de5"] ;
264 -> 265 ;
266 [label="gini = 0.0\nsamples = 2\nvalue = [2, 0]\nclass = 0", fillcolor="#e58139"] ;
264 -> 266 ;
267 [label="gini = 0.0\nsamples = 1\nvalue = [0, 1]\nclass = 1", fillcolor="#399de5"] ;
261 -> 267 ;
268 [label="Fare <= 17.6\ngini = 0.475\nsamples = 18\nvalue = [7, 11]\nclass = 1", fillcolor="#b7dbf6"] ;
248 -> 268 ;
269 [label="Age <= 41.5\ngini = 0.198\nsamples = 9\nvalue = [1, 8]\nclass = 1", fillcolor="#52a9e8"] ;
268 -> 269 ;
270 [label="gini = 0.0\nsamples = 8\nvalue = [0, 8]\nclass = 1", fillcolor="#399de5"] ;
269 -> 270 ;
271 [label="gini = 0.0\nsamples = 1\nvalue = [1, 0]\nclass = 0", fillcolor="#e58139"] ;
269 -> 271 ;
272 [label="Fare <= 20.231\ngini = 0.444\nsamples = 9\nvalue = [6, 3]\nclass = 0", fillcolor="#f2c09c"] ;
268 -> 272 ;
273 [label="gini = 0.0\nsamples = 4\nvalue = [4, 0]\nclass = 0", fillcolor="#e58139"] ;
272 -> 273 ;
274 [label="Age <= 30.0\ngini = 0.48\nsamples = 5\nvalue = [2, 3]\nclass = 1", fillcolor="#bddef6"] ;
272 -> 274 ;
275 [label="Age <= 6.0\ngini = 0.444\nsamples = 3\nvalue = [2, 1]\nclass = 0", fillcolor="#f2c09c"] ;
274 -> 275 ;
276 [label="gini = 0.0\nsamples = 1\nvalue = [0, 1]\nclass = 1", fillcolor="#399de5"] ;
275 -> 276 ;
277 [label="gini = 0.0\nsamples = 2\nvalue = [2, 0]\nclass = 0", fillcolor="#e58139"] ;
275 -> 277 ;
278 [label="gini = 0.0\nsamples = 2\nvalue = [0, 2]\nclass = 1", fillcolor="#399de5"] ;
274 -> 278 ;
279 [label="Age <= 5.5\ngini = 0.18\nsamples = 20\nvalue = [18, 2]\nclass = 0", fillcolor="#e88f4f"] ;
247 -> 279 ;
280 [label="gini = 0.0\nsamples = 1\nvalue = [0, 1]\nclass = 1", fillcolor="#399de5"] ;
279 -> 280 ;
281 [label="Parch <= 4.5\ngini = 0.1\nsamples = 19\nvalue = [18, 1]\nclass = 0", fillcolor="#e68844"] ;
279 -> 281 ;
282 [label="gini = 0.0\nsamples = 15\nvalue = [15, 0]\nclass = 0", fillcolor="#e58139"] ;
281 -> 282 ;
283 [label="Age <= 38.5\ngini = 0.375\nsamples = 4\nvalue = [3, 1]\nclass = 0", fillcolor="#eeab7b"] ;
281 -> 283 ;
284 [label="gini = 0.0\nsamples = 1\nvalue = [0, 1]\nclass = 1", fillcolor="#399de5"] ;
283 -> 284 ;
285 [label="gini = 0.0\nsamples = 3\nvalue = [3, 0]\nclass = 0", fillcolor="#e58139"] ;
283 -> 285 ;
286 [label="Age <= 30.1\ngini = 0.38\nsamples = 47\nvalue = [12, 35]\nclass = 1", fillcolor="#7dbfee"] ;
246 -> 286 ;
287 [label="Fare <= 15.373\ngini = 0.346\nsamples = 45\nvalue = [10, 35]\nclass = 1", fillcolor="#72b9ec"] ;
286 -> 287 ;
288 [label="Fare <= 13.935\ngini = 0.408\nsamples = 35\nvalue = [10, 25]\nclass = 1", fillcolor="#88c4ef"] ;
287 -> 288 ;
289 [label="Fare <= 6.987\ngini = 0.245\nsamples = 28\nvalue = [4, 24]\nclass = 1", fillcolor="#5aade9"] ;
288 -> 289 ;
290 [label="gini = 0.0\nsamples = 1\nvalue = [1, 0]\nclass = 0", fillcolor="#e58139"] ;
289 -> 290 ;
291 [label="Parch <= 1.5\ngini = 0.198\nsamples = 27\nvalue = [3, 24]\nclass = 1", fillcolor="#52a9e8"] ;
289 -> 291 ;
292 [label="Fare <= 7.769\ngini = 0.142\nsamples = 26\nvalue = [2, 24]\nclass = 1", fillcolor="#49a5e7"] ;
291 -> 292 ;
293 [label="Fare <= 7.744\ngini = 0.208\nsamples = 17\nvalue = [2, 15]\nclass = 1", fillcolor="#53aae8"] ;
292 -> 293 ;
294 [label="gini = 0.0\nsamples = 6\nvalue = [0, 6]\nclass = 1", fillcolor="#399de5"] ;
293 -> 294 ;
295 [label="Age <= 21.5\ngini = 0.298\nsamples = 11\nvalue = [2, 9]\nclass = 1", fillcolor="#65b3eb"] ;
293 -> 295 ;
296 [label="Age <= 18.5\ngini = 0.5\nsamples = 2\nvalue = [1, 1]\nclass = 0", fillcolor="#ffffff"] ;
295 -> 296 ;
297 [label="gini = 0.0\nsamples = 1\nvalue = [0, 1]\nclass = 1", fillcolor="#399de5"] ;
296 -> 297 ;
298 [label="gini = 0.0\nsamples = 1\nvalue = [1, 0]\nclass = 0", fillcolor="#e58139"] ;
296 -> 298 ;
299 [label="Age <= 25.85\ngini = 0.198\nsamples = 9\nvalue = [1, 8]\nclass = 1", fillcolor="#52a9e8"] ;
295 -> 299 ;
300 [label="gini = 0.0\nsamples = 1\nvalue = [0, 1]\nclass = 1", fillcolor="#399de5"] ;
299 -> 300 ;
301 [label="gini = 0.219\nsamples = 8\nvalue = [1, 7]\nclass = 1", fillcolor="#55abe9"] ;
299 -> 301 ;
302 [label="gini = 0.0\nsamples = 9\nvalue = [0, 9]\nclass = 1", fillcolor="#399de5"] ;
292 -> 302 ;
303 [label="gini = 0.0\nsamples = 1\nvalue = [1, 0]\nclass = 0", fillcolor="#e58139"] ;
291 -> 303 ;
304 [label="Parch <= 1.5\ngini = 0.245\nsamples = 7\nvalue = [6, 1]\nclass = 0", fillcolor="#e9965a"] ;
288 -> 304 ;
305 [label="gini = 0.0\nsamples = 5\nvalue = [5, 0]\nclass = 0", fillcolor="#e58139"] ;
304 -> 305 ;
306 [label="Age <= 29.35\ngini = 0.5\nsamples = 2\nvalue = [1, 1]\nclass = 0", fillcolor="#ffffff"] ;
304 -> 306 ;
307 [label="gini = 0.0\nsamples = 1\nvalue = [0, 1]\nclass = 1", fillcolor="#399de5"] ;
306 -> 307 ;
308 [label="gini = 0.0\nsamples = 1\nvalue = [1, 0]\nclass = 0", fillcolor="#e58139"] ;
306 -> 308 ;
309 [label="gini = 0.0\nsamples = 10\nvalue = [0, 10]\nclass = 1", fillcolor="#399de5"] ;
287 -> 309 ;
310 [label="gini = 0.0\nsamples = 2\nvalue = [2, 0]\nclass = 0", fillcolor="#e58139"] ;
286 -> 310 ;
}